<?xml version="1.0"?>
<opencv_storage>
<cascade>
  <stageType>BOOST</stageType>
  <featureType>HAAR</featureType>
  <height>40</height>
  <width>80</width>
  <stageParams>
    <boostType>GAB</boostType>
    <minHitRate>9.9900001287460327e-01</minHitRate>
    <maxFalseAlarm>5.0000000000000000e-01</maxFalseAlarm>
    <weightTrimRate>9.4999999999999996e-01</weightTrimRate>
    <maxDepth>1</maxDepth>
    <maxWeakCount>100</maxWeakCount></stageParams>
  <featureParams>
    <maxCatCount>0</maxCatCount>
    <featSize>1</featSize>
    <mode>ALL</mode></featureParams>
  <stageNum>20</stageNum>
  <stages>
    <!-- stage 0 -->
    <_>
      <maxWeakCount>4</maxWeakCount>
      <stageThreshold>-9.9813419580459595e-01</stageThreshold>
      <weakClassifiers>
        <_>
          <internalNodes>
            0 -1 14 1.9100788980722427e-02</internalNodes>
          <leafValues>
            -5.8132529258728027e-01 8.3974361419677734e-01</leafValues></_>
        <_>
          <internalNodes>
            0 -1 68 9.6759255975484848e-03</internalNodes>
          <leafValues>
            -7.7523583173751831e-01 6.6701781749725342e-01</leafValues></_>
        <_>
          <internalNodes>
            0 -1 190 -1.8141454085707664e-02</internalNodes>
          <leafValues>
            8.5234254598617554e-01 -5.4435223340988159e-01</leafValues></_>
        <_>
          <internalNodes>
            0 -1 120 5.9262104332447052e-03</internalNodes>
          <leafValues>
            -4.6644291281700134e-01 9.0277916193008423e-01</leafValues></_></weakClassifiers></_>
    <!-- stage 1 -->
    <_>
      <maxWeakCount>7</maxWeakCount>
      <stageThreshold>-1.6276535987854004e+00</stageThreshold>
      <weakClassifiers>
        <_>
          <internalNodes>
            0 -1 177 1.6632989048957825e-02</internalNodes>
          <leafValues>
            -3.8961037993431091e-01 8.4337347745895386e-01</leafValues></_>
        <_>
          <internalNodes>
            0 -1 18 1.5394564718008041e-02</internalNodes>
          <leafValues>
            -4.8350757360458374e-01 7.6763027906417847e-01</leafValues></_>
        <_>
          <internalNodes>
            0 -1 169 1.3024112209677696e-02</internalNodes>
          <leafValues>
            -4.2588210105895996e-01 8.3687663078308105e-01</leafValues></_>
        <_>
          <internalNodes>
            0 -1 79 7.0366184227168560e-03</internalNodes>
          <leafValues>
            -7.4991536140441895e-01 5.3222978115081787e-01</leafValues></_>
        <_>
          <internalNodes>
            0 -1 118 -5.3643685532733798e-05</internalNodes>
          <leafValues>
            -9.8077332973480225e-01 3.3627554774284363e-01</leafValues></_>
        <_>
          <internalNodes>
            0 -1 75 -2.0152742043137550e-02</internalNodes>
          <leafValues>
            9.3251049518585205e-01 -3.8748881220817566e-01</leafValues></_>
        <_>
          <internalNodes>
            0 -1 115 -3.2642279984429479e-04</internalNodes>
          <leafValues>
            -7.3088771104812622e-01 4.7247511148452759e-01</leafValues></_></weakClassifiers></_>
    <!-- stage 2 -->
    <_>
      <maxWeakCount>7</maxWeakCount>
      <stageThreshold>-9.7486752271652222e-01</stageThreshold>
      <weakClassifiers>
        <_>
          <internalNodes>
            0 -1 15 1.8292084336280823e-02</internalNodes>
          <leafValues>
            -4.3678161501884460e-01 7.7876108884811401e-01</leafValues></_>
        <_>
          <internalNodes>
            0 -1 136 7.6236473396420479e-03</internalNodes>
          <leafValues>
            -5.0284802913665771e-01 6.9029533863067627e-01</leafValues></_>
        <_>
          <internalNodes>
            0 -1 130 8.7189134210348129e-03</internalNodes>
          <leafValues>
            -4.0922835469245911e-01 7.9498559236526489e-01</leafValues></_>
        <_>
          <internalNodes>
            0 -1 96 -9.5027098723221570e-05</internalNodes>
          <leafValues>
            -8.7735617160797119e-01 3.9904090762138367e-01</leafValues></_>
        <_>
          <internalNodes>
            0 -1 195 7.7798105776309967e-03</internalNodes>
          <leafValues>
            -5.1890313625335693e-01 6.5665793418884277e-01</leafValues></_>
        <_>
          <internalNodes>
            0 -1 132 -8.2728392953868024e-06</internalNodes>
          <leafValues>
            -9.5101588964462280e-01 3.7140798568725586e-01</leafValues></_>
        <_>
          <internalNodes>
            0 -1 132 1.6740481441956945e-05</internalNodes>
          <leafValues>
            3.3016195893287659e-01 -9.5282620191574097e-01</leafValues></_></weakClassifiers></_>
    <!-- stage 3 -->
    <_>
      <maxWeakCount>6</maxWeakCount>
      <stageThreshold>-1.0096327066421509e+00</stageThreshold>
      <weakClassifiers>
        <_>
          <internalNodes>
            0 -1 133 2.4386419681832194e-05</internalNodes>
          <leafValues>
            5.3929960727691650e-01 -9.3015873432159424e-01</leafValues></_>
        <_>
          <internalNodes>
            0 -1 176 3.9783511310815811e-03</internalNodes>
          <leafValues>
            -4.3345886468887329e-01 7.6516997814178467e-01</leafValues></_>
        <_>
          <internalNodes>
            0 -1 4 1.8657916784286499e-01</internalNodes>
          <leafValues>
            -5.0550335645675659e-01 6.2628936767578125e-01</leafValues></_>
        <_>
          <internalNodes>
            0 -1 112 7.5109088793396950e-03</internalNodes>
          <leafValues>
            -5.3952807188034058e-01 5.7124799489974976e-01</leafValues></_>
        <_>
          <internalNodes>
            0 -1 59 -3.3132894895970821e-03</internalNodes>
          <leafValues>
            7.1940541267395020e-01 -4.4730776548385620e-01</leafValues></_>
        <_>
          <internalNodes>
            0 -1 121 -2.2890038962941617e-05</internalNodes>
          <leafValues>
            -9.7255140542984009e-01 3.7686565518379211e-01</leafValues></_></weakClassifiers></_>
    <!-- stage 4 -->
    <_>
      <maxWeakCount>6</maxWeakCount>
      <stageThreshold>-9.5315712690353394e-01</stageThreshold>
      <weakClassifiers>
        <_>
          <internalNodes>
            0 -1 129 3.7600173527607694e-05</internalNodes>
          <leafValues>
            5.3870213031768799e-01 -9.0031152963638306e-01</leafValues></_>
        <_>
          <internalNodes>
            0 -1 72 7.7013289555907249e-03</internalNodes>
          <leafValues>
            -5.1039373874664307e-01 7.3835134506225586e-01</leafValues></_>
        <_>
          <internalNodes>
            0 -1 180 7.7871000394225121e-03</internalNodes>
          <leafValues>
            -5.5759179592132568e-01 6.0527318716049194e-01</leafValues></_>
        <_>
          <internalNodes>
            0 -1 102 1.4173362404108047e-02</internalNodes>
          <leafValues>
            -3.8235542178153992e-01 8.9923793077468872e-01</leafValues></_>
        <_>
          <internalNodes>
            0 -1 40 -7.5205201283097267e-03</internalNodes>
          <leafValues>
            6.2096983194351196e-01 -5.5728781223297119e-01</leafValues></_>
        <_>
          <internalNodes>
            0 -1 111 5.7736216112971306e-03</internalNodes>
          <leafValues>
            -4.2927443981170654e-01 6.7318981885910034e-01</leafValues></_></weakClassifiers></_>
    <!-- stage 5 -->
    <_>
      <maxWeakCount>8</maxWeakCount>
      <stageThreshold>-8.4239888191223145e-01</stageThreshold>
      <weakClassifiers>
        <_>
          <internalNodes>
            0 -1 16 9.2484295368194580e-02</internalNodes>
          <leafValues>
            -4.0303030610084534e-01 7.0851063728332520e-01</leafValues></_>
        <_>
          <internalNodes>
            0 -1 77 1.3260941952466965e-02</internalNodes>
          <leafValues>
            -2.9200142621994019e-01 9.1811913251876831e-01</leafValues></_>
        <_>
          <internalNodes>
            0 -1 165 3.6998778581619263e-02</internalNodes>
          <leafValues>
            -4.3945038318634033e-01 7.3568910360336304e-01</leafValues></_>
        <_>
          <internalNodes>
            0 -1 58 7.1950061246752739e-03</internalNodes>
          <leafValues>
            -7.8766596317291260e-01 3.4323087334632874e-01</leafValues></_>
        <_>
          <internalNodes>
            0 -1 182 1.3820873573422432e-02</internalNodes>
          <leafValues>
            -3.5371339321136475e-01 7.4898952245712280e-01</leafValues></_>
        <_>
          <internalNodes>
            0 -1 146 -2.0646937191486359e-02</internalNodes>
          <leafValues>
            9.2951726913452148e-01 -2.4716845154762268e-01</leafValues></_>
        <_>
          <internalNodes>
            0 -1 174 8.7304245680570602e-03</internalNodes>
          <leafValues>
            -3.0174139142036438e-01 7.3260372877120972e-01</leafValues></_>
        <_>
          <internalNodes>
            0 -1 88 1.1684436351060867e-02</internalNodes>
          <leafValues>
            -2.5122728943824768e-01 9.4053685665130615e-01</leafValues></_></weakClassifiers></_>
    <!-- stage 6 -->
    <_>
      <maxWeakCount>8</maxWeakCount>
      <stageThreshold>-1.5209485292434692e+00</stageThreshold>
      <weakClassifiers>
        <_>
          <internalNodes>
            0 -1 10 2.9858557973057032e-03</internalNodes>
          <leafValues>
            -4.7993019223213196e-01 6.5725415945053101e-01</leafValues></_>
        <_>
          <internalNodes>
            0 -1 61 5.9788217768073082e-03</internalNodes>
          <leafValues>
            -4.2057344317436218e-01 5.7002508640289307e-01</leafValues></_>
        <_>
          <internalNodes>
            0 -1 108 -5.2642579248640686e-05</internalNodes>
          <leafValues>
            -8.6849939823150635e-01 2.9296875000000000e-01</leafValues></_>
        <_>
          <internalNodes>
            0 -1 185 6.2200017273426056e-03</internalNodes>
          <leafValues>
            -4.2635470628738403e-01 5.8982378244400024e-01</leafValues></_>
        <_>
          <internalNodes>
            0 -1 60 -1.1205517686903477e-02</internalNodes>
          <leafValues>
            -9.1287785768508911e-01 2.4678583443164825e-01</leafValues></_>
        <_>
          <internalNodes>
            0 -1 0 1.8947133421897888e-01</internalNodes>
          <leafValues>
            -5.7022660970687866e-01 3.6812150478363037e-01</leafValues></_>
        <_>
          <internalNodes>
            0 -1 152 1.4928767086530570e-05</internalNodes>
          <leafValues>
            2.4226576089859009e-01 -8.8152027130126953e-01</leafValues></_>
        <_>
          <internalNodes>
            0 -1 83 7.5341877527534962e-03</internalNodes>
          <leafValues>
            -4.0588390827178955e-01 5.3030431270599365e-01</leafValues></_></weakClassifiers></_>
    <!-- stage 7 -->
    <_>
      <maxWeakCount>10</maxWeakCount>
      <stageThreshold>-1.5428506135940552e+00</stageThreshold>
      <weakClassifiers>
        <_>
          <internalNodes>
            0 -1 13 2.6236984878778458e-02</internalNodes>
          <leafValues>
            -3.8461539149284363e-01 6.6978192329406738e-01</leafValues></_>
        <_>
          <internalNodes>
            0 -1 107 5.2208499982953072e-03</internalNodes>
          <leafValues>
            -6.1361634731292725e-01 4.3130797147750854e-01</leafValues></_>
        <_>
          <internalNodes>
            0 -1 163 1.5092808753252029e-02</internalNodes>
          <leafValues>
            -4.1142380237579346e-01 6.2498843669891357e-01</leafValues></_>
        <_>
          <internalNodes>
            0 -1 183 5.1510695368051529e-02</internalNodes>
          <leafValues>
            -4.2876252532005310e-01 6.1019867658615112e-01</leafValues></_>
        <_>
          <internalNodes>
            0 -1 145 -4.6553759602829814e-05</internalNodes>
          <leafValues>
            -9.6280854940414429e-01 2.1720485389232635e-01</leafValues></_>
        <_>
          <internalNodes>
            0 -1 64 2.9834015294909477e-03</internalNodes>
          <leafValues>
            -3.5663503408432007e-01 6.8572765588760376e-01</leafValues></_>
        <_>
          <internalNodes>
            0 -1 24 -1.1165088042616844e-02</internalNodes>
          <leafValues>
            5.8229619264602661e-01 -3.7934732437133789e-01</leafValues></_>
        <_>
          <internalNodes>
            0 -1 89 2.3853182792663574e-03</internalNodes>
          <leafValues>
            -2.8857719898223877e-01 6.1444580554962158e-01</leafValues></_>
        <_>
          <internalNodes>
            0 -1 91 1.7097346484661102e-02</internalNodes>
          <leafValues>
            -2.5691184401512146e-01 9.0153640508651733e-01</leafValues></_>
        <_>
          <internalNodes>
            0 -1 131 -3.9522674342151731e-05</internalNodes>
          <leafValues>
            -8.3860981464385986e-01 3.1490966677665710e-01</leafValues></_></weakClassifiers></_>
    <!-- stage 8 -->
    <_>
      <maxWeakCount>9</maxWeakCount>
      <stageThreshold>-7.5283420085906982e-01</stageThreshold>
      <weakClassifiers>
        <_>
          <internalNodes>
            0 -1 143 -9.2992733698338270e-05</internalNodes>
          <leafValues>
            -9.6938776969909668e-01 4.2022791504859924e-01</leafValues></_>
        <_>
          <internalNodes>
            0 -1 159 1.1697694659233093e-02</internalNodes>
          <leafValues>
            -3.3775365352630615e-01 8.1376403570175171e-01</leafValues></_>
        <_>
          <internalNodes>
            0 -1 150 1.2111335061490536e-02</internalNodes>
          <leafValues>
            -4.0810567140579224e-01 5.6850671768188477e-01</leafValues></_>
        <_>
          <internalNodes>
            0 -1 47 1.4810093678534031e-02</internalNodes>
          <leafValues>
            -3.6092948913574219e-01 6.0081827640533447e-01</leafValues></_>
        <_>
          <internalNodes>
            0 -1 22 7.7047951519489288e-02</internalNodes>
          <leafValues>
            -4.2708146572113037e-01 5.0207835435867310e-01</leafValues></_>
        <_>
          <internalNodes>
            0 -1 194 1.1139483191072941e-02</internalNodes>
          <leafValues>
            -3.0780386924743652e-01 6.9326734542846680e-01</leafValues></_>
        <_>
          <internalNodes>
            0 -1 84 4.0774899534881115e-03</internalNodes>
          <leafValues>
            -2.8245604038238525e-01 6.8555688858032227e-01</leafValues></_>
        <_>
          <internalNodes>
            0 -1 119 -1.0268388723488897e-04</internalNodes>
          <leafValues>
            -5.6852495670318604e-01 3.7964788079261780e-01</leafValues></_>
        <_>
          <internalNodes>
            0 -1 173 4.7191958874464035e-03</internalNodes>
          <leafValues>
            -2.8596651554107666e-01 7.8967809677124023e-01</leafValues></_></weakClassifiers></_>
    <!-- stage 9 -->
    <_>
      <maxWeakCount>9</maxWeakCount>
      <stageThreshold>-1.1628021001815796e+00</stageThreshold>
      <weakClassifiers>
        <_>
          <internalNodes>
            0 -1 34 2.4141717702150345e-02</internalNodes>
          <leafValues>
            4.4203439354896545e-01 -7.2623574733734131e-01</leafValues></_>
        <_>
          <internalNodes>
            0 -1 90 -1.2013734318315983e-02</internalNodes>
          <leafValues>
            9.4897747039794922e-01 -2.5539559125900269e-01</leafValues></_>
        <_>
          <internalNodes>
            0 -1 53 3.2122135162353516e-02</internalNodes>
          <leafValues>
            -4.9072295427322388e-01 4.6329680085182190e-01</leafValues></_>
        <_>
          <internalNodes>
            0 -1 67 3.2105684280395508e-02</internalNodes>
          <leafValues>
            -5.3803718090057373e-01 3.7570622563362122e-01</leafValues></_>
        <_>
          <internalNodes>
            0 -1 86 -1.2837130576372147e-02</internalNodes>
          <leafValues>
            7.3969233036041260e-01 -2.7414301037788391e-01</leafValues></_>
        <_>
          <internalNodes>
            0 -1 184 5.7604126632213593e-03</internalNodes>
          <leafValues>
            -3.4206449985504150e-01 5.1957279443740845e-01</leafValues></_>
        <_>
          <internalNodes>
            0 -1 44 1.0601974281598814e-05</internalNodes>
          <leafValues>
            2.4034339189529419e-01 -7.7203863859176636e-01</leafValues></_>
        <_>
          <internalNodes>
            0 -1 162 1.2705937959253788e-02</internalNodes>
          <leafValues>
            -2.7090805768966675e-01 7.0149755477905273e-01</leafValues></_>
        <_>
          <internalNodes>
            0 -1 166 -7.0139547460712492e-05</internalNodes>
          <leafValues>
            -5.8765202760696411e-01 3.1745502352714539e-01</leafValues></_></weakClassifiers></_>
    <!-- stage 10 -->
    <_>
      <maxWeakCount>11</maxWeakCount>
      <stageThreshold>-1.5599765777587891e+00</stageThreshold>
      <weakClassifiers>
        <_>
          <internalNodes>
            0 -1 132 -1.2060985682182945e-05</internalNodes>
          <leafValues>
            -9.6470588445663452e-01 3.9440560340881348e-01</leafValues></_>
        <_>
          <internalNodes>
            0 -1 171 1.2264208868145943e-02</internalNodes>
          <leafValues>
            -3.8120669126510620e-01 6.2114197015762329e-01</leafValues></_>
        <_>
          <internalNodes>
            0 -1 12 3.7247881293296814e-02</internalNodes>
          <leafValues>
            -4.9714237451553345e-01 4.3544638156890869e-01</leafValues></_>
        <_>
          <internalNodes>
            0 -1 36 -4.7288099303841591e-03</internalNodes>
          <leafValues>
            5.5739831924438477e-01 -3.5510215163230896e-01</leafValues></_>
        <_>
          <internalNodes>
            0 -1 198 1.4639342203736305e-02</internalNodes>
          <leafValues>
            -3.7275567650794983e-01 5.4208528995513916e-01</leafValues></_>
        <_>
          <internalNodes>
            0 -1 147 -1.9013553857803345e-02</internalNodes>
          <leafValues>
            -8.2566404342651367e-01 2.6815259456634521e-01</leafValues></_>
        <_>
          <internalNodes>
            0 -1 55 1.1948823928833008e-02</internalNodes>
          <leafValues>
            -3.1149038672447205e-01 6.7860782146453857e-01</leafValues></_>
        <_>
          <internalNodes>
            0 -1 168 2.6451040059328079e-02</internalNodes>
          <leafValues>
            2.3548938333988190e-01 -8.9931136369705200e-01</leafValues></_>
        <_>
          <internalNodes>
            0 -1 70 2.3798404436092824e-04</internalNodes>
          <leafValues>
            -5.5064147710800171e-01 3.1455713510513306e-01</leafValues></_>
        <_>
          <internalNodes>
            0 -1 178 -7.4248098826501518e-05</internalNodes>
          <leafValues>
            -5.5970758199691772e-01 3.1399297714233398e-01</leafValues></_>
        <_>
          <internalNodes>
            0 -1 156 -1.5253019519150257e-02</internalNodes>
          <leafValues>
            7.6075428724288940e-01 -3.0367839336395264e-01</leafValues></_></weakClassifiers></_>
    <!-- stage 11 -->
    <_>
      <maxWeakCount>13</maxWeakCount>
      <stageThreshold>-1.4205614328384399e+00</stageThreshold>
      <weakClassifiers>
        <_>
          <internalNodes>
            0 -1 149 -1.3887826935388148e-04</internalNodes>
          <leafValues>
            -8.1355929374694824e-01 4.3401759862899780e-01</leafValues></_>
        <_>
          <internalNodes>
            0 -1 90 -1.3981590978801250e-02</internalNodes>
          <leafValues>
            9.0704625844955444e-01 -2.4913239479064941e-01</leafValues></_>
        <_>
          <internalNodes>
            0 -1 188 -6.0149006458232179e-05</internalNodes>
          <leafValues>
            -6.4154547452926636e-01 2.9048505425453186e-01</leafValues></_>
        <_>
          <internalNodes>
            0 -1 164 3.2438967376947403e-02</internalNodes>
          <leafValues>
            -2.7204915881156921e-01 6.4242988824844360e-01</leafValues></_>
        <_>
          <internalNodes>
            0 -1 19 1.1897232383489609e-02</internalNodes>
          <leafValues>
            -3.6917120218276978e-01 4.6650773286819458e-01</leafValues></_>
        <_>
          <internalNodes>
            0 -1 65 2.4739980697631836e-02</internalNodes>
          <leafValues>
            -5.3712165355682373e-01 3.0072447657585144e-01</leafValues></_>
        <_>
          <internalNodes>
            0 -1 106 7.5406907126307487e-03</internalNodes>
          <leafValues>
            -3.5164487361907959e-01 6.9896894693374634e-01</leafValues></_>
        <_>
          <internalNodes>
            0 -1 139 -2.2816700948169455e-05</internalNodes>
          <leafValues>
            -7.5027310848236084e-01 2.7208089828491211e-01</leafValues></_>
        <_>
          <internalNodes>
            0 -1 93 3.2142424024641514e-03</internalNodes>
          <leafValues>
            -2.8670489788055420e-01 8.0041098594665527e-01</leafValues></_>
        <_>
          <internalNodes>
            0 -1 71 3.7033972330391407e-04</internalNodes>
          <leafValues>
            -4.5818918943405151e-01 4.3273189663887024e-01</leafValues></_>
        <_>
          <internalNodes>
            0 -1 30 -1.0356454004067928e-04</internalNodes>
          <leafValues>
            -6.7555004358291626e-01 2.7925521135330200e-01</leafValues></_>
        <_>
          <internalNodes>
            0 -1 33 2.5119230151176453e-02</internalNodes>
          <leafValues>
            -3.1842511892318726e-01 6.2816965579986572e-01</leafValues></_>
        <_>
          <internalNodes>
            0 -1 35 -1.0879705951083452e-04</internalNodes>
          <leafValues>
            -5.4984277486801147e-01 3.7165555357933044e-01</leafValues></_></weakClassifiers></_>
    <!-- stage 12 -->
    <_>
      <maxWeakCount>12</maxWeakCount>
      <stageThreshold>-1.3696404695510864e+00</stageThreshold>
      <weakClassifiers>
        <_>
          <internalNodes>
            0 -1 94 5.8435844257473946e-03</internalNodes>
          <leafValues>
            -1.7110265791416168e-01 6.5967941284179688e-01</leafValues></_>
        <_>
          <internalNodes>
            0 -1 181 1.6773512586951256e-02</internalNodes>
          <leafValues>
            -3.1044644117355347e-01 5.5739992856979370e-01</leafValues></_>
        <_>
          <internalNodes>
            0 -1 41 7.0766275748610497e-03</internalNodes>
          <leafValues>
            -3.4075492620468140e-01 5.6052166223526001e-01</leafValues></_>
        <_>
          <internalNodes>
            0 -1 85 9.2852776870131493e-03</internalNodes>
          <leafValues>
            -2.9644861817359924e-01 5.4394781589508057e-01</leafValues></_>
        <_>
          <internalNodes>
            0 -1 49 1.2000961229205132e-02</internalNodes>
          <leafValues>
            -3.2922488451004028e-01 4.7430083155632019e-01</leafValues></_>
        <_>
          <internalNodes>
            0 -1 11 1.6563799232244492e-02</internalNodes>
          <leafValues>
            -2.8303453326225281e-01 5.3909432888031006e-01</leafValues></_>
        <_>
          <internalNodes>
            0 -1 28 2.0092051476240158e-02</internalNodes>
          <leafValues>
            -1.9248381257057190e-01 7.4413865804672241e-01</leafValues></_>
        <_>
          <internalNodes>
            0 -1 197 -1.0053000005427748e-04</internalNodes>
          <leafValues>
            -7.0827800035476685e-01 2.5739032030105591e-01</leafValues></_>
        <_>
          <internalNodes>
            0 -1 37 2.0209945738315582e-02</internalNodes>
          <leafValues>
            -2.1839295327663422e-01 8.3806800842285156e-01</leafValues></_>
        <_>
          <internalNodes>
            0 -1 175 -6.8001143517903984e-05</internalNodes>
          <leafValues>
            -4.9713197350502014e-01 3.1712320446968079e-01</leafValues></_>
        <_>
          <internalNodes>
            0 -1 110 2.1965049207210541e-02</internalNodes>
          <leafValues>
            -2.6587089896202087e-01 5.7802027463912964e-01</leafValues></_>
        <_>
          <internalNodes>
            0 -1 42 2.0883235265500844e-04</internalNodes>
          <leafValues>
            -4.3767082691192627e-01 3.8753113150596619e-01</leafValues></_></weakClassifiers></_>
    <!-- stage 13 -->
    <_>
      <maxWeakCount>13</maxWeakCount>
      <stageThreshold>-1.5397560596466064e+00</stageThreshold>
      <weakClassifiers>
        <_>
          <internalNodes>
            0 -1 135 5.4218443110585213e-03</internalNodes>
          <leafValues>
            -1.6212710738182068e-01 6.3329315185546875e-01</leafValues></_>
        <_>
          <internalNodes>
            0 -1 134 -9.6127507276833057e-05</internalNodes>
          <leafValues>
            -9.3309074640274048e-01 2.2359792888164520e-01</leafValues></_>
        <_>
          <internalNodes>
            0 -1 27 -3.9624911732971668e-03</internalNodes>
          <leafValues>
            3.2903221249580383e-01 -5.6535482406616211e-01</leafValues></_>
        <_>
          <internalNodes>
            0 -1 2 2.4028325080871582e-01</internalNodes>
          <leafValues>
            -4.2426535487174988e-01 4.2308977246284485e-01</leafValues></_>
        <_>
          <internalNodes>
            0 -1 73 6.2427888624370098e-03</internalNodes>
          <leafValues>
            -2.7079689502716064e-01 7.1859842538833618e-01</leafValues></_>
        <_>
          <internalNodes>
            0 -1 148 2.2085975855588913e-02</internalNodes>
          <leafValues>
            -1.9888293743133545e-01 8.3784908056259155e-01</leafValues></_>
        <_>
          <internalNodes>
            0 -1 172 -9.4240787439048290e-04</internalNodes>
          <leafValues>
            6.5789580345153809e-01 -2.3954604566097260e-01</leafValues></_>
        <_>
          <internalNodes>
            0 -1 127 -6.1227139667607844e-05</internalNodes>
          <leafValues>
            -9.3471461534500122e-01 1.7789787054061890e-01</leafValues></_>
        <_>
          <internalNodes>
            0 -1 101 -8.0243349075317383e-03</internalNodes>
          <leafValues>
            6.0777926445007324e-01 -3.0368930101394653e-01</leafValues></_>
        <_>
          <internalNodes>
            0 -1 140 1.1367909610271454e-02</internalNodes>
          <leafValues>
            -2.0820151269435883e-01 6.9187438488006592e-01</leafValues></_>
        <_>
          <internalNodes>
            0 -1 29 8.1221674918197095e-05</internalNodes>
          <leafValues>
            2.3481279611587524e-01 -6.6056507825851440e-01</leafValues></_>
        <_>
          <internalNodes>
            0 -1 51 -1.6809200868010521e-02</internalNodes>
          <leafValues>
            6.9489753246307373e-01 -2.3375025391578674e-01</leafValues></_>
        <_>
          <internalNodes>
            0 -1 116 8.1802660133689642e-05</internalNodes>
          <leafValues>
            -5.0016218423843384e-01 3.3197116851806641e-01</leafValues></_></weakClassifiers></_>
    <!-- stage 14 -->
    <_>
      <maxWeakCount>11</maxWeakCount>
      <stageThreshold>-1.0433228015899658e+00</stageThreshold>
      <weakClassifiers>
        <_>
          <internalNodes>
            0 -1 117 -9.2882346507394686e-06</internalNodes>
          <leafValues>
            -5.7522124052047729e-01 4.7184774279594421e-01</leafValues></_>
        <_>
          <internalNodes>
            0 -1 126 -4.7949399799108505e-02</internalNodes>
          <leafValues>
            4.2816212773323059e-01 -3.8962891697883606e-01</leafValues></_>
        <_>
          <internalNodes>
            0 -1 142 -1.3895350275561213e-04</internalNodes>
          <leafValues>
            6.5602099895477295e-01 -2.3537351191043854e-01</leafValues></_>
        <_>
          <internalNodes>
            0 -1 31 1.0640143955242820e-05</internalNodes>
          <leafValues>
            2.1085640788078308e-01 -6.5243619680404663e-01</leafValues></_>
        <_>
          <internalNodes>
            0 -1 21 2.4107167497277260e-02</internalNodes>
          <leafValues>
            -3.7856575846672058e-01 4.1018044948577881e-01</leafValues></_>
        <_>
          <internalNodes>
            0 -1 187 1.6941757872700691e-02</internalNodes>
          <leafValues>
            -2.8701272606849670e-01 6.1638015508651733e-01</leafValues></_>
        <_>
          <internalNodes>
            0 -1 66 4.8517733812332153e-03</internalNodes>
          <leafValues>
            -3.9870932698249817e-01 3.7244424223899841e-01</leafValues></_>
        <_>
          <internalNodes>
            0 -1 81 1.2880565598607063e-02</internalNodes>
          <leafValues>
            -1.9208589196205139e-01 8.9272421598434448e-01</leafValues></_>
        <_>
          <internalNodes>
            0 -1 97 -1.3520510401576757e-03</internalNodes>
          <leafValues>
            5.2265685796737671e-01 -2.6805835962295532e-01</leafValues></_>
        <_>
          <internalNodes>
            0 -1 7 3.1227432191371918e-02</internalNodes>
          <leafValues>
            -4.4083118438720703e-01 3.6862421035766602e-01</leafValues></_>
        <_>
          <internalNodes>
            0 -1 52 -6.7286491394042969e-03</internalNodes>
          <leafValues>
            7.5222057104110718e-01 -2.2057136893272400e-01</leafValues></_></weakClassifiers></_>
    <!-- stage 15 -->
    <_>
      <maxWeakCount>12</maxWeakCount>
      <stageThreshold>-1.0182639360427856e+00</stageThreshold>
      <weakClassifiers>
        <_>
          <internalNodes>
            0 -1 118 -9.1359521320555359e-05</internalNodes>
          <leafValues>
            -9.4736844301223755e-01 3.7569060921669006e-01</leafValues></_>
        <_>
          <internalNodes>
            0 -1 158 -1.3379437848925591e-02</internalNodes>
          <leafValues>
            8.0540001392364502e-01 -2.0883151888847351e-01</leafValues></_>
        <_>
          <internalNodes>
            0 -1 186 9.1334963217377663e-03</internalNodes>
          <leafValues>
            -4.1170415282249451e-01 4.2831000685691833e-01</leafValues></_>
        <_>
          <internalNodes>
            0 -1 98 6.6898668592330068e-05</internalNodes>
          <leafValues>
            -5.5569410324096680e-01 2.9116103053092957e-01</leafValues></_>
        <_>
          <internalNodes>
            0 -1 76 -7.8020337969064713e-03</internalNodes>
          <leafValues>
            6.0239601135253906e-01 -2.3807738721370697e-01</leafValues></_>
        <_>
          <internalNodes>
            0 -1 8 9.7405456006526947e-02</internalNodes>
          <leafValues>
            -4.7790062427520752e-01 3.7954321503639221e-01</leafValues></_>
        <_>
          <internalNodes>
            0 -1 103 2.2379551082849503e-02</internalNodes>
          <leafValues>
            -1.4972414076328278e-01 8.4781527519226074e-01</leafValues></_>
        <_>
          <internalNodes>
            0 -1 141 2.7708089910447598e-03</internalNodes>
          <leafValues>
            -3.7519273161888123e-01 3.7745764851570129e-01</leafValues></_>
        <_>
          <internalNodes>
            0 -1 167 1.5384492278099060e-01</internalNodes>
          <leafValues>
            -2.8979536890983582e-01 5.5660164356231689e-01</leafValues></_>
        <_>
          <internalNodes>
            0 -1 48 1.8970582634210587e-02</internalNodes>
          <leafValues>
            -2.0192909240722656e-01 7.4777060747146606e-01</leafValues></_>
        <_>
          <internalNodes>
            0 -1 151 2.8711467166431248e-05</internalNodes>
          <leafValues>
            1.7476573586463928e-01 -9.2851310968399048e-01</leafValues></_>
        <_>
          <internalNodes>
            0 -1 38 1.2464306782931089e-03</internalNodes>
          <leafValues>
            -2.5937664508819580e-01 5.0524359941482544e-01</leafValues></_></weakClassifiers></_>
    <!-- stage 16 -->
    <_>
      <maxWeakCount>13</maxWeakCount>
      <stageThreshold>-1.0652714967727661e+00</stageThreshold>
      <weakClassifiers>
        <_>
          <internalNodes>
            0 -1 122 1.6793165355920792e-02</internalNodes>
          <leafValues>
            3.7873524427413940e-01 -9.0062111616134644e-01</leafValues></_>
        <_>
          <internalNodes>
            0 -1 74 1.1177767068147659e-02</internalNodes>
          <leafValues>
            -4.0810742974281311e-01 4.7410303354263306e-01</leafValues></_>
        <_>
          <internalNodes>
            0 -1 123 8.8012088090181351e-03</internalNodes>
          <leafValues>
            -3.9842465519905090e-01 3.5851144790649414e-01</leafValues></_>
        <_>
          <internalNodes>
            0 -1 191 -4.4931941665709019e-03</internalNodes>
          <leafValues>
            2.8126299381256104e-01 -5.6779706478118896e-01</leafValues></_>
        <_>
          <internalNodes>
            0 -1 138 5.4591902880929410e-05</internalNodes>
          <leafValues>
            -5.9337311983108521e-01 2.1469025313854218e-01</leafValues></_>
        <_>
          <internalNodes>
            0 -1 5 1.8131205439567566e-01</internalNodes>
          <leafValues>
            -2.3842427134513855e-01 5.6858313083648682e-01</leafValues></_>
        <_>
          <internalNodes>
            0 -1 87 1.0258512571454048e-02</internalNodes>
          <leafValues>
            -1.7749336361885071e-01 7.8101205825805664e-01</leafValues></_>
        <_>
          <internalNodes>
            0 -1 61 5.0369547680020332e-03</internalNodes>
          <leafValues>
            -4.0233567357063293e-01 3.7632614374160767e-01</leafValues></_>
        <_>
          <internalNodes>
            0 -1 32 -9.4108894700184464e-05</internalNodes>
          <leafValues>
            -6.7362982034683228e-01 1.8964877724647522e-01</leafValues></_>
        <_>
          <internalNodes>
            0 -1 161 3.3718138933181763e-02</internalNodes>
          <leafValues>
            1.3550256192684174e-01 -9.6365791559219360e-01</leafValues></_>
        <_>
          <internalNodes>
            0 -1 104 -4.4079682993469760e-05</internalNodes>
          <leafValues>
            -6.9629716873168945e-01 1.5331141650676727e-01</leafValues></_>
        <_>
          <internalNodes>
            0 -1 155 1.5092212706804276e-02</internalNodes>
          <leafValues>
            -2.4112847447395325e-01 6.8956595659255981e-01</leafValues></_>
        <_>
          <internalNodes>
            0 -1 153 6.2632337212562561e-02</internalNodes>
          <leafValues>
            -3.7576812505722046e-01 4.4288089871406555e-01</leafValues></_></weakClassifiers></_>
    <!-- stage 17 -->
    <_>
      <maxWeakCount>13</maxWeakCount>
      <stageThreshold>-8.9290803670883179e-01</stageThreshold>
      <weakClassifiers>
        <_>
          <internalNodes>
            0 -1 43 4.4866428652312607e-06</internalNodes>
          <leafValues>
            4.0882351994514465e-01 -6.4999997615814209e-01</leafValues></_>
        <_>
          <internalNodes>
            0 -1 124 -8.5288228001445532e-04</internalNodes>
          <leafValues>
            4.6989956498146057e-01 -3.4938716888427734e-01</leafValues></_>
        <_>
          <internalNodes>
            0 -1 105 1.8100574379786849e-03</internalNodes>
          <leafValues>
            1.7518514394760132e-01 -9.7041749954223633e-01</leafValues></_>
        <_>
          <internalNodes>
            0 -1 80 -7.1797454729676247e-03</internalNodes>
          <leafValues>
            4.6528214216232300e-01 -3.1315961480140686e-01</leafValues></_>
        <_>
          <internalNodes>
            0 -1 1 2.5219929218292236e-01</internalNodes>
          <leafValues>
            -3.5376691818237305e-01 3.8310042023658752e-01</leafValues></_>
        <_>
          <internalNodes>
            0 -1 45 -2.6012247428297997e-02</internalNodes>
          <leafValues>
            7.0854634046554565e-01 -1.4974908530712128e-01</leafValues></_>
        <_>
          <internalNodes>
            0 -1 50 1.1483028531074524e-02</internalNodes>
          <leafValues>
            -2.2333824634552002e-01 7.5210344791412354e-01</leafValues></_>
        <_>
          <internalNodes>
            0 -1 144 -4.1425470262765884e-03</internalNodes>
          <leafValues>
            7.8663319349288940e-01 -1.3690312206745148e-01</leafValues></_>
        <_>
          <internalNodes>
            0 -1 69 3.0174333602190018e-02</internalNodes>
          <leafValues>
            -4.3031415343284607e-01 3.2875403761863708e-01</leafValues></_>
        <_>
          <internalNodes>
            0 -1 62 6.7359604872763157e-03</internalNodes>
          <leafValues>
            -2.4625907838344574e-01 4.7225433588027954e-01</leafValues></_>
        <_>
          <internalNodes>
            0 -1 125 8.5049090557731688e-05</internalNodes>
          <leafValues>
            1.5757326781749725e-01 -9.8463761806488037e-01</leafValues></_>
        <_>
          <internalNodes>
            0 -1 189 1.1393943801522255e-02</internalNodes>
          <leafValues>
            -2.8272771835327148e-01 4.9630701541900635e-01</leafValues></_>
        <_>
          <internalNodes>
            0 -1 9 2.2778376005589962e-03</internalNodes>
          <leafValues>
            1.7542885243892670e-01 -6.7190575599670410e-01</leafValues></_></weakClassifiers></_>
    <!-- stage 18 -->
    <_>
      <maxWeakCount>18</maxWeakCount>
      <stageThreshold>-1.3948264122009277e+00</stageThreshold>
      <weakClassifiers>
        <_>
          <internalNodes>
            0 -1 25 3.3547687344253063e-03</internalNodes>
          <leafValues>
            -1.9887165725231171e-01 6.0718291997909546e-01</leafValues></_>
        <_>
          <internalNodes>
            0 -1 54 1.0557930916547775e-02</internalNodes>
          <leafValues>
            -1.5376931428909302e-01 7.5485408306121826e-01</leafValues></_>
        <_>
          <internalNodes>
            0 -1 20 5.8243502862751484e-03</internalNodes>
          <leafValues>
            -3.1610468029975891e-01 4.2768391966819763e-01</leafValues></_>
        <_>
          <internalNodes>
            0 -1 114 7.4462485499680042e-03</internalNodes>
          <leafValues>
            -3.4039819240570068e-01 3.5957020521163940e-01</leafValues></_>
        <_>
          <internalNodes>
            0 -1 170 -1.6241606324911118e-02</internalNodes>
          <leafValues>
            3.7150126695632935e-01 -3.6685529351234436e-01</leafValues></_>
        <_>
          <internalNodes>
            0 -1 100 -2.1242662332952023e-03</internalNodes>
          <leafValues>
            4.9723389744758606e-01 -3.2231876254081726e-01</leafValues></_>
        <_>
          <internalNodes>
            0 -1 17 1.0254653170704842e-03</internalNodes>
          <leafValues>
            2.3641362786293030e-01 -7.0392006635665894e-01</leafValues></_>
        <_>
          <internalNodes>
            0 -1 157 -3.1642932444810867e-03</internalNodes>
          <leafValues>
            6.2498402595520020e-01 -2.5626948475837708e-01</leafValues></_>
        <_>
          <internalNodes>
            0 -1 57 -1.0128347203135490e-03</internalNodes>
          <leafValues>
            4.4841888546943665e-01 -3.0438965559005737e-01</leafValues></_>
        <_>
          <internalNodes>
            0 -1 26 3.2465960830450058e-03</internalNodes>
          <leafValues>
            -4.6706616878509521e-01 3.0912792682647705e-01</leafValues></_>
        <_>
          <internalNodes>
            0 -1 63 5.2021909505128860e-03</internalNodes>
          <leafValues>
            -2.7381813526153564e-01 5.0757527351379395e-01</leafValues></_>
        <_>
          <internalNodes>
            0 -1 3 -1.4464105479419231e-03</internalNodes>
          <leafValues>
            -7.6604592800140381e-01 2.1126236021518707e-01</leafValues></_>
        <_>
          <internalNodes>
            0 -1 23 1.6750458627939224e-02</internalNodes>
          <leafValues>
            -3.1669512391090393e-01 4.4531390070915222e-01</leafValues></_>
        <_>
          <internalNodes>
            0 -1 46 -3.7395190447568893e-03</internalNodes>
          <leafValues>
            5.7702809572219849e-01 -2.3873339593410492e-01</leafValues></_>
        <_>
          <internalNodes>
            0 -1 82 9.9637592211365700e-03</internalNodes>
          <leafValues>
            -2.1605283021926880e-01 6.4750754833221436e-01</leafValues></_>
        <_>
          <internalNodes>
            0 -1 196 -2.7624086942523718e-04</internalNodes>
          <leafValues>
            3.1577315926551819e-01 -4.5854896306991577e-01</leafValues></_>
        <_>
          <internalNodes>
            0 -1 200 3.2887028064578772e-03</internalNodes>
          <leafValues>
            2.0216335356235504e-01 -5.6690299510955811e-01</leafValues></_>
        <_>
          <internalNodes>
            0 -1 92 7.3157956649083644e-05</internalNodes>
          <leafValues>
            1.3151913881301880e-01 -8.5329884290695190e-01</leafValues></_></weakClassifiers></_>
    <!-- stage 19 -->
    <_>
      <maxWeakCount>16</maxWeakCount>
      <stageThreshold>-7.6888638734817505e-01</stageThreshold>
      <weakClassifiers>
        <_>
          <internalNodes>
            0 -1 99 2.3106647859094664e-05</internalNodes>
          <leafValues>
            -3.2083332538604736e-01 4.9464285373687744e-01</leafValues></_>
        <_>
          <internalNodes>
            0 -1 6 -3.3392775803804398e-03</internalNodes>
          <leafValues>
            2.9633405804634094e-01 -5.1030308008193970e-01</leafValues></_>
        <_>
          <internalNodes>
            0 -1 109 5.4299905896186829e-03</internalNodes>
          <leafValues>
            -3.3438435196876526e-01 5.1245212554931641e-01</leafValues></_>
        <_>
          <internalNodes>
            0 -1 95 3.1308508478105068e-03</internalNodes>
          <leafValues>
            -2.0646941661834717e-01 8.4633773565292358e-01</leafValues></_>
        <_>
          <internalNodes>
            0 -1 128 -8.0426834756508470e-05</internalNodes>
          <leafValues>
            -6.4003568887710571e-01 2.3587587475776672e-01</leafValues></_>
        <_>
          <internalNodes>
            0 -1 179 6.2570064328610897e-03</internalNodes>
          <leafValues>
            -3.1318089365959167e-01 4.0100768208503723e-01</leafValues></_>
        <_>
          <internalNodes>
            0 -1 39 5.7435267990513239e-06</internalNodes>
          <leafValues>
            1.9039301574230194e-01 -6.8514287471771240e-01</leafValues></_>
        <_>
          <internalNodes>
            0 -1 154 1.1808893643319607e-02</internalNodes>
          <leafValues>
            -2.7504846453666687e-01 5.1776486635208130e-01</leafValues></_>
        <_>
          <internalNodes>
            0 -1 56 8.6551159620285034e-03</internalNodes>
          <leafValues>
            -1.8228134512901306e-01 7.8788512945175171e-01</leafValues></_>
        <_>
          <internalNodes>
            0 -1 193 -4.7663488658145070e-05</internalNodes>
          <leafValues>
            2.8704261779785156e-01 -5.7748115062713623e-01</leafValues></_>
        <_>
          <internalNodes>
            0 -1 160 -2.1797842346131802e-03</internalNodes>
          <leafValues>
            5.4328441619873047e-01 -2.6224768161773682e-01</leafValues></_>
        <_>
          <internalNodes>
            0 -1 78 7.5987642630934715e-03</internalNodes>
          <leafValues>
            -2.6271554827690125e-01 4.9154528975486755e-01</leafValues></_>
        <_>
          <internalNodes>
            0 -1 199 -2.1869069896638393e-03</internalNodes>
          <leafValues>
            -6.7178344726562500e-01 1.8684183061122894e-01</leafValues></_>
        <_>
          <internalNodes>
            0 -1 113 3.7011409403930884e-06</internalNodes>
          <leafValues>
            -3.3447468280792236e-01 3.4103843569755554e-01</leafValues></_>
        <_>
          <internalNodes>
            0 -1 137 -9.6775893325684592e-06</internalNodes>
          <leafValues>
            -8.5686159133911133e-01 1.7026795446872711e-01</leafValues></_>
        <_>
          <internalNodes>
            0 -1 192 -3.0595515854656696e-03</internalNodes>
          <leafValues>
            5.0220727920532227e-01 -2.5677073001861572e-01</leafValues></_></weakClassifiers></_></stages>
  <features>
    <_>
      <rects>
        <_>
          0 0 66 27 -1.</_>
        <_>
          22 9 22 9 9.</_></rects>
      <tilted>0</tilted></_>
    <_>
      <rects>
        <_>
          2 9 76 24 -1.</_>
        <_>
          21 9 38 24 2.</_></rects>
      <tilted>0</tilted></_>
    <_>
      <rects>
        <_>
          3 3 72 29 -1.</_>
        <_>
          21 3 36 29 2.</_></rects>
      <tilted>0</tilted></_>
    <_>
      <rects>
        <_>
          3 16 8 8 -1.</_>
        <_>
          3 16 4 4 2.</_>
        <_>
          7 20 4 4 2.</_></rects>
      <tilted>0</tilted></_>
    <_>
      <rects>
        <_>
          4 1 72 32 -1.</_>
        <_>
          22 1 36 32 2.</_></rects>
      <tilted>0</tilted></_>
    <_>
      <rects>
        <_>
          5 0 63 12 -1.</_>
        <_>
          26 4 21 4 9.</_></rects>
      <tilted>0</tilted></_>
    <_>
      <rects>
        <_>
          5 4 34 1 -1.</_>
        <_>
          5 4 17 1 2.</_></rects>
      <tilted>1</tilted></_>
    <_>
      <rects>
        <_>
          8 3 34 14 -1.</_>
        <_>
          25 3 17 14 2.</_></rects>
      <tilted>0</tilted></_>
    <_>
      <rects>
        <_>
          10 3 48 36 -1.</_>
        <_>
          22 3 24 36 2.</_></rects>
      <tilted>0</tilted></_>
    <_>
      <rects>
        <_>
          10 16 8 5 -1.</_>
        <_>
          12 18 4 5 2.</_></rects>
      <tilted>1</tilted></_>
    <_>
      <rects>
        <_>
          10 20 33 1 -1.</_>
        <_>
          21 20 11 1 3.</_></rects>
      <tilted>0</tilted></_>
    <_>
      <rects>
        <_>
          12 33 52 3 -1.</_>
        <_>
          25 33 26 3 2.</_></rects>
      <tilted>0</tilted></_>
    <_>
      <rects>
        <_>
          13 9 16 24 -1.</_>
        <_>
          21 9 8 24 2.</_></rects>
      <tilted>0</tilted></_>
    <_>
      <rects>
        <_>
          15 4 14 31 -1.</_>
        <_>
          22 4 7 31 2.</_></rects>
      <tilted>0</tilted></_>
    <_>
      <rects>
        <_>
          15 12 21 16 -1.</_>
        <_>
          22 12 7 16 3.</_></rects>
      <tilted>0</tilted></_>
    <_>
      <rects>
        <_>
          15 14 18 13 -1.</_>
        <_>
          21 14 6 13 3.</_></rects>
      <tilted>0</tilted></_>
    <_>
      <rects>
        <_>
          16 0 18 39 -1.</_>
        <_>
          22 13 6 13 9.</_></rects>
      <tilted>0</tilted></_>
    <_>
      <rects>
        <_>
          16 39 16 1 -1.</_>
        <_>
          20 39 8 1 2.</_></rects>
      <tilted>0</tilted></_>
    <_>
      <rects>
        <_>
          17 9 10 19 -1.</_>
        <_>
          22 9 5 19 2.</_></rects>
      <tilted>0</tilted></_>
    <_>
      <rects>
        <_>
          17 15 12 11 -1.</_>
        <_>
          21 15 4 11 3.</_></rects>
      <tilted>0</tilted></_>
    <_>
      <rects>
        <_>
          18 15 9 11 -1.</_>
        <_>
          21 15 3 11 3.</_></rects>
      <tilted>0</tilted></_>
    <_>
      <rects>
        <_>
          18 16 21 12 -1.</_>
        <_>
          25 20 7 4 9.</_></rects>
      <tilted>0</tilted></_>
    <_>
      <rects>
        <_>
          19 0 18 30 -1.</_>
        <_>
          25 10 6 10 9.</_></rects>
      <tilted>0</tilted></_>
    <_>
      <rects>
        <_>
          21 24 18 9 -1.</_>
        <_>
          27 27 6 3 9.</_></rects>
      <tilted>0</tilted></_>
    <_>
      <rects>
        <_>
          22 15 10 12 -1.</_>
        <_>
          27 15 5 12 2.</_></rects>
      <tilted>0</tilted></_>
    <_>
      <rects>
        <_>
          22 19 24 6 -1.</_>
        <_>
          22 19 12 3 2.</_>
        <_>
          34 22 12 3 2.</_></rects>
      <tilted>0</tilted></_>
    <_>
      <rects>
        <_>
          23 0 5 16 -1.</_>
        <_>
          23 8 5 8 2.</_></rects>
      <tilted>0</tilted></_>
    <_>
      <rects>
        <_>
          23 13 24 15 -1.</_>
        <_>
          29 13 12 15 2.</_></rects>
      <tilted>0</tilted></_>
    <_>
      <rects>
        <_>
          23 23 15 9 -1.</_>
        <_>
          28 26 5 3 9.</_></rects>
      <tilted>0</tilted></_>
    <_>
      <rects>
        <_>
          24 17 1 6 -1.</_>
        <_>
          24 20 1 3 2.</_></rects>
      <tilted>0</tilted></_>
    <_>
      <rects>
        <_>
          24 18 1 6 -1.</_>
        <_>
          24 21 1 3 2.</_></rects>
      <tilted>0</tilted></_>
    <_>
      <rects>
        <_>
          24 18 2 4 -1.</_>
        <_>
          25 18 1 4 2.</_></rects>
      <tilted>0</tilted></_>
    <_>
      <rects>
        <_>
          24 22 3 6 -1.</_>
        <_>
          25 24 1 2 9.</_></rects>
      <tilted>0</tilted></_>
    <_>
      <rects>
        <_>
          24 22 15 15 -1.</_>
        <_>
          29 27 5 5 9.</_></rects>
      <tilted>0</tilted></_>
    <_>
      <rects>
        <_>
          25 11 30 20 -1.</_>
        <_>
          40 11 15 20 2.</_></rects>
      <tilted>0</tilted></_>
    <_>
      <rects>
        <_>
          25 18 9 3 -1.</_>
        <_>
          28 19 3 1 9.</_></rects>
      <tilted>0</tilted></_>
    <_>
      <rects>
        <_>
          25 20 32 1 -1.</_>
        <_>
          33 20 16 1 2.</_></rects>
      <tilted>0</tilted></_>
    <_>
      <rects>
        <_>
          25 26 13 12 -1.</_>
        <_>
          25 30 13 4 3.</_></rects>
      <tilted>0</tilted></_>
    <_>
      <rects>
        <_>
          26 0 23 2 -1.</_>
        <_>
          26 1 23 1 2.</_></rects>
      <tilted>0</tilted></_>
    <_>
      <rects>
        <_>
          26 17 2 4 -1.</_>
        <_>
          27 17 1 4 2.</_></rects>
      <tilted>0</tilted></_>
    <_>
      <rects>
        <_>
          27 0 8 10 -1.</_>
        <_>
          27 0 4 10 2.</_></rects>
      <tilted>1</tilted></_>
    <_>
      <rects>
        <_>
          27 0 24 12 -1.</_>
        <_>
          27 3 24 6 2.</_></rects>
      <tilted>0</tilted></_>
    <_>
      <rects>
        <_>
          27 17 15 9 -1.</_>
        <_>
          32 20 5 3 9.</_></rects>
      <tilted>0</tilted></_>
    <_>
      <rects>
        <_>
          27 18 2 3 -1.</_>
        <_>
          28 18 1 3 2.</_></rects>
      <tilted>0</tilted></_>
    <_>
      <rects>
        <_>
          27 20 2 5 -1.</_>
        <_>
          28 20 1 5 2.</_></rects>
      <tilted>0</tilted></_>
    <_>
      <rects>
        <_>
          28 7 12 24 -1.</_>
        <_>
          28 7 6 12 2.</_>
        <_>
          34 19 6 12 2.</_></rects>
      <tilted>0</tilted></_>
    <_>
      <rects>
        <_>
          28 16 14 6 -1.</_>
        <_>
          28 18 14 2 3.</_></rects>
      <tilted>0</tilted></_>
    <_>
      <rects>
        <_>
          28 21 10 9 -1.</_>
        <_>
          25 24 10 3 3.</_></rects>
      <tilted>1</tilted></_>
    <_>
      <rects>
        <_>
          28 23 7 9 -1.</_>
        <_>
          25 26 7 3 3.</_></rects>
      <tilted>1</tilted></_>
    <_>
      <rects>
        <_>
          29 3 9 12 -1.</_>
        <_>
          32 6 3 12 3.</_></rects>
      <tilted>1</tilted></_>
    <_>
      <rects>
        <_>
          29 11 8 18 -1.</_>
        <_>
          29 11 4 9 2.</_>
        <_>
          33 20 4 9 2.</_></rects>
      <tilted>0</tilted></_>
    <_>
      <rects>
        <_>
          29 11 10 20 -1.</_>
        <_>
          29 11 5 10 2.</_>
        <_>
          34 21 5 10 2.</_></rects>
      <tilted>0</tilted></_>
    <_>
      <rects>
        <_>
          29 13 24 6 -1.</_>
        <_>
          29 13 12 3 2.</_>
        <_>
          41 16 12 3 2.</_></rects>
      <tilted>0</tilted></_>
    <_>
      <rects>
        <_>
          29 15 40 15 -1.</_>
        <_>
          39 15 20 15 2.</_></rects>
      <tilted>0</tilted></_>
    <_>
      <rects>
        <_>
          29 23 22 6 -1.</_>
        <_>
          29 23 11 3 2.</_>
        <_>
          40 26 11 3 2.</_></rects>
      <tilted>0</tilted></_>
    <_>
      <rects>
        <_>
          30 0 8 11 -1.</_>
        <_>
          32 2 4 11 2.</_></rects>
      <tilted>1</tilted></_>
    <_>
      <rects>
        <_>
          30 10 24 6 -1.</_>
        <_>
          30 10 12 3 2.</_>
        <_>
          42 13 12 3 2.</_></rects>
      <tilted>0</tilted></_>
    <_>
      <rects>
        <_>
          30 11 4 17 -1.</_>
        <_>
          31 11 2 17 2.</_></rects>
      <tilted>0</tilted></_>
    <_>
      <rects>
        <_>
          30 11 21 9 -1.</_>
        <_>
          37 14 7 3 9.</_></rects>
      <tilted>0</tilted></_>
    <_>
      <rects>
        <_>
          30 13 6 14 -1.</_>
        <_>
          32 13 2 14 3.</_></rects>
      <tilted>0</tilted></_>
    <_>
      <rects>
        <_>
          30 13 20 14 -1.</_>
        <_>
          40 13 10 14 2.</_></rects>
      <tilted>0</tilted></_>
    <_>
      <rects>
        <_>
          30 16 9 12 -1.</_>
        <_>
          33 20 3 4 9.</_></rects>
      <tilted>0</tilted></_>
    <_>
      <rects>
        <_>
          30 18 13 8 -1.</_>
        <_>
          30 22 13 4 2.</_></rects>
      <tilted>0</tilted></_>
    <_>
      <rects>
        <_>
          30 32 19 8 -1.</_>
        <_>
          30 34 19 4 2.</_></rects>
      <tilted>0</tilted></_>
    <_>
      <rects>
        <_>
          31 0 17 4 -1.</_>
        <_>
          31 2 17 2 2.</_></rects>
      <tilted>0</tilted></_>
    <_>
      <rects>
        <_>
          31 10 18 18 -1.</_>
        <_>
          37 16 6 6 9.</_></rects>
      <tilted>0</tilted></_>
    <_>
      <rects>
        <_>
          31 12 9 12 -1.</_>
        <_>
          34 16 3 4 9.</_></rects>
      <tilted>0</tilted></_>
    <_>
      <rects>
        <_>
          31 13 18 18 -1.</_>
        <_>
          37 19 6 6 9.</_></rects>
      <tilted>0</tilted></_>
    <_>
      <rects>
        <_>
          32 9 18 12 -1.</_>
        <_>
          38 13 6 4 9.</_></rects>
      <tilted>0</tilted></_>
    <_>
      <rects>
        <_>
          32 12 18 21 -1.</_>
        <_>
          38 19 6 7 9.</_></rects>
      <tilted>0</tilted></_>
    <_>
      <rects>
        <_>
          32 13 6 12 -1.</_>
        <_>
          34 17 2 4 9.</_></rects>
      <tilted>0</tilted></_>
    <_>
      <rects>
        <_>
          32 17 6 9 -1.</_>
        <_>
          34 20 2 3 9.</_></rects>
      <tilted>0</tilted></_>
    <_>
      <rects>
        <_>
          32 20 9 9 -1.</_>
        <_>
          35 23 3 3 9.</_></rects>
      <tilted>0</tilted></_>
    <_>
      <rects>
        <_>
          32 32 19 8 -1.</_>
        <_>
          32 34 19 4 2.</_></rects>
      <tilted>0</tilted></_>
    <_>
      <rects>
        <_>
          33 5 16 12 -1.</_>
        <_>
          33 5 8 12 2.</_></rects>
      <tilted>1</tilted></_>
    <_>
      <rects>
        <_>
          33 14 14 12 -1.</_>
        <_>
          33 18 14 4 3.</_></rects>
      <tilted>0</tilted></_>
    <_>
      <rects>
        <_>
          33 15 10 9 -1.</_>
        <_>
          33 18 10 3 3.</_></rects>
      <tilted>0</tilted></_>
    <_>
      <rects>
        <_>
          33 17 10 14 -1.</_>
        <_>
          33 17 5 7 2.</_>
        <_>
          38 24 5 7 2.</_></rects>
      <tilted>0</tilted></_>
    <_>
      <rects>
        <_>
          33 21 12 6 -1.</_>
        <_>
          37 25 4 6 3.</_></rects>
      <tilted>1</tilted></_>
    <_>
      <rects>
        <_>
          33 21 15 9 -1.</_>
        <_>
          38 24 5 3 9.</_></rects>
      <tilted>0</tilted></_>
    <_>
      <rects>
        <_>
          33 21 7 6 -1.</_>
        <_>
          31 23 7 2 3.</_></rects>
      <tilted>1</tilted></_>
    <_>
      <rects>
        <_>
          33 21 18 8 -1.</_>
        <_>
          33 21 9 4 2.</_>
        <_>
          42 25 9 4 2.</_></rects>
      <tilted>0</tilted></_>
    <_>
      <rects>
        <_>
          33 26 17 12 -1.</_>
        <_>
          33 29 17 6 2.</_></rects>
      <tilted>0</tilted></_>
    <_>
      <rects>
        <_>
          34 0 27 6 -1.</_>
        <_>
          32 2 27 2 3.</_></rects>
      <tilted>1</tilted></_>
    <_>
      <rects>
        <_>
          34 13 6 5 -1.</_>
        <_>
          36 15 2 5 3.</_></rects>
      <tilted>1</tilted></_>
    <_>
      <rects>
        <_>
          34 15 18 8 -1.</_>
        <_>
          34 15 9 4 2.</_>
        <_>
          43 19 9 4 2.</_></rects>
      <tilted>0</tilted></_>
    <_>
      <rects>
        <_>
          34 16 13 9 -1.</_>
        <_>
          34 19 13 3 3.</_></rects>
      <tilted>0</tilted></_>
    <_>
      <rects>
        <_>
          34 17 12 5 -1.</_>
        <_>
          37 17 6 5 2.</_></rects>
      <tilted>0</tilted></_>
    <_>
      <rects>
        <_>
          34 17 12 5 -1.</_>
        <_>
          38 17 4 5 3.</_></rects>
      <tilted>0</tilted></_>
    <_>
      <rects>
        <_>
          34 17 16 4 -1.</_>
        <_>
          33 18 16 2 2.</_></rects>
      <tilted>1</tilted></_>
    <_>
      <rects>
        <_>
          34 18 12 4 -1.</_>
        <_>
          37 18 6 4 2.</_></rects>
      <tilted>0</tilted></_>
    <_>
      <rects>
        <_>
          34 18 12 6 -1.</_>
        <_>
          38 18 4 6 3.</_></rects>
      <tilted>0</tilted></_>
    <_>
      <rects>
        <_>
          34 19 2 2 -1.</_>
        <_>
          35 19 1 2 2.</_></rects>
      <tilted>0</tilted></_>
    <_>
      <rects>
        <_>
          34 19 12 1 -1.</_>
        <_>
          38 19 4 1 3.</_></rects>
      <tilted>0</tilted></_>
    <_>
      <rects>
        <_>
          34 20 6 9 -1.</_>
        <_>
          36 23 2 3 9.</_></rects>
      <tilted>0</tilted></_>
    <_>
      <rects>
        <_>
          34 20 12 1 -1.</_>
        <_>
          37 20 6 1 2.</_></rects>
      <tilted>0</tilted></_>
    <_>
      <rects>
        <_>
          35 13 6 6 -1.</_>
        <_>
          37 15 2 2 9.</_></rects>
      <tilted>0</tilted></_>
    <_>
      <rects>
        <_>
          35 14 16 3 -1.</_>
        <_>
          34 15 16 1 3.</_></rects>
      <tilted>1</tilted></_>
    <_>
      <rects>
        <_>
          35 15 9 12 -1.</_>
        <_>
          38 19 3 4 9.</_></rects>
      <tilted>0</tilted></_>
    <_>
      <rects>
        <_>
          35 23 6 3 -1.</_>
        <_>
          37 24 2 1 9.</_></rects>
      <tilted>0</tilted></_>
    <_>
      <rects>
        <_>
          35 27 11 6 -1.</_>
        <_>
          35 29 11 2 3.</_></rects>
      <tilted>0</tilted></_>
    <_>
      <rects>
        <_>
          36 4 15 9 -1.</_>
        <_>
          36 7 15 3 3.</_></rects>
      <tilted>0</tilted></_>
    <_>
      <rects>
        <_>
          36 8 9 11 -1.</_>
        <_>
          39 11 3 11 3.</_></rects>
      <tilted>1</tilted></_>
    <_>
      <rects>
        <_>
          36 9 8 24 -1.</_>
        <_>
          36 9 4 12 2.</_>
        <_>
          40 21 4 12 2.</_></rects>
      <tilted>0</tilted></_>
    <_>
      <rects>
        <_>
          36 12 6 3 -1.</_>
        <_>
          38 13 2 1 9.</_></rects>
      <tilted>0</tilted></_>
    <_>
      <rects>
        <_>
          36 16 9 8 -1.</_>
        <_>
          36 20 9 4 2.</_></rects>
      <tilted>0</tilted></_>
    <_>
      <rects>
        <_>
          36 17 9 6 -1.</_>
        <_>
          34 19 9 2 3.</_></rects>
      <tilted>1</tilted></_>
    <_>
      <rects>
        <_>
          36 21 12 9 -1.</_>
        <_>
          40 24 4 3 9.</_></rects>
      <tilted>0</tilted></_>
    <_>
      <rects>
        <_>
          36 23 6 3 -1.</_>
        <_>
          38 24 2 1 9.</_></rects>
      <tilted>0</tilted></_>
    <_>
      <rects>
        <_>
          37 9 8 8 -1.</_>
        <_>
          39 11 4 8 2.</_></rects>
      <tilted>1</tilted></_>
    <_>
      <rects>
        <_>
          37 17 12 8 -1.</_>
        <_>
          41 21 4 8 3.</_></rects>
      <tilted>1</tilted></_>
    <_>
      <rects>
        <_>
          37 20 20 9 -1.</_>
        <_>
          37 23 20 3 3.</_></rects>
      <tilted>0</tilted></_>
    <_>
      <rects>
        <_>
          37 21 12 9 -1.</_>
        <_>
          41 24 4 3 9.</_></rects>
      <tilted>0</tilted></_>
    <_>
      <rects>
        <_>
          37 37 1 3 -1.</_>
        <_>
          37 38 1 1 3.</_></rects>
      <tilted>0</tilted></_>
    <_>
      <rects>
        <_>
          38 4 22 6 -1.</_>
        <_>
          36 6 22 2 3.</_></rects>
      <tilted>1</tilted></_>
    <_>
      <rects>
        <_>
          38 13 3 15 -1.</_>
        <_>
          39 18 1 5 9.</_></rects>
      <tilted>0</tilted></_>
    <_>
      <rects>
        <_>
          38 13 2 27 -1.</_>
        <_>
          38 22 2 9 3.</_></rects>
      <tilted>0</tilted></_>
    <_>
      <rects>
        <_>
          38 14 8 2 -1.</_>
        <_>
          38 14 4 2 2.</_></rects>
      <tilted>1</tilted></_>
    <_>
      <rects>
        <_>
          38 15 6 3 -1.</_>
        <_>
          40 16 2 1 9.</_></rects>
      <tilted>0</tilted></_>
    <_>
      <rects>
        <_>
          38 15 6 12 -1.</_>
        <_>
          40 19 2 4 9.</_></rects>
      <tilted>0</tilted></_>
    <_>
      <rects>
        <_>
          38 18 8 6 -1.</_>
        <_>
          36 20 8 2 3.</_></rects>
      <tilted>1</tilted></_>
    <_>
      <rects>
        <_>
          38 20 3 1 -1.</_>
        <_>
          39 20 1 1 3.</_></rects>
      <tilted>0</tilted></_>
    <_>
      <rects>
        <_>
          39 8 14 9 -1.</_>
        <_>
          39 8 7 9 2.</_></rects>
      <tilted>1</tilted></_>
    <_>
      <rects>
        <_>
          39 13 12 12 -1.</_>
        <_>
          43 17 4 4 9.</_></rects>
      <tilted>0</tilted></_>
    <_>
      <rects>
        <_>
          39 16 3 8 -1.</_>
        <_>
          40 17 1 8 3.</_></rects>
      <tilted>1</tilted></_>
    <_>
      <rects>
        <_>
          39 20 2 2 -1.</_>
        <_>
          39 21 2 1 2.</_></rects>
      <tilted>0</tilted></_>
    <_>
      <rects>
        <_>
          39 21 38 11 -1.</_>
        <_>
          58 21 19 11 2.</_></rects>
      <tilted>0</tilted></_>
    <_>
      <rects>
        <_>
          39 23 3 3 -1.</_>
        <_>
          40 24 1 1 9.</_></rects>
      <tilted>0</tilted></_>
    <_>
      <rects>
        <_>
          40 15 6 4 -1.</_>
        <_>
          40 15 6 2 2.</_></rects>
      <tilted>1</tilted></_>
    <_>
      <rects>
        <_>
          40 16 1 8 -1.</_>
        <_>
          40 20 1 4 2.</_></rects>
      <tilted>0</tilted></_>
    <_>
      <rects>
        <_>
          40 17 5 9 -1.</_>
        <_>
          37 20 5 3 3.</_></rects>
      <tilted>1</tilted></_>
    <_>
      <rects>
        <_>
          40 18 1 6 -1.</_>
        <_>
          40 21 1 3 2.</_></rects>
      <tilted>0</tilted></_>
    <_>
      <rects>
        <_>
          40 19 1 2 -1.</_>
        <_>
          40 20 1 1 2.</_></rects>
      <tilted>0</tilted></_>
    <_>
      <rects>
        <_>
          40 19 2 1 -1.</_>
        <_>
          40 19 1 1 2.</_></rects>
      <tilted>1</tilted></_>
    <_>
      <rects>
        <_>
          40 19 2 3 -1.</_>
        <_>
          40 20 2 1 3.</_></rects>
      <tilted>0</tilted></_>
    <_>
      <rects>
        <_>
          40 19 9 9 -1.</_>
        <_>
          43 22 3 3 9.</_></rects>
      <tilted>0</tilted></_>
    <_>
      <rects>
        <_>
          40 19 24 3 -1.</_>
        <_>
          48 20 8 1 9.</_></rects>
      <tilted>0</tilted></_>
    <_>
      <rects>
        <_>
          40 20 1 2 -1.</_>
        <_>
          40 21 1 1 2.</_></rects>
      <tilted>0</tilted></_>
    <_>
      <rects>
        <_>
          40 22 6 6 -1.</_>
        <_>
          42 24 2 2 9.</_></rects>
      <tilted>0</tilted></_>
    <_>
      <rects>
        <_>
          40 24 3 3 -1.</_>
        <_>
          41 25 1 1 9.</_></rects>
      <tilted>0</tilted></_>
    <_>
      <rects>
        <_>
          41 0 11 16 -1.</_>
        <_>
          41 4 11 8 2.</_></rects>
      <tilted>0</tilted></_>
    <_>
      <rects>
        <_>
          41 6 15 6 -1.</_>
        <_>
          39 8 15 2 3.</_></rects>
      <tilted>1</tilted></_>
    <_>
      <rects>
        <_>
          41 17 2 4 -1.</_>
        <_>
          41 17 1 2 2.</_>
        <_>
          42 19 1 2 2.</_></rects>
      <tilted>0</tilted></_>
    <_>
      <rects>
        <_>
          41 18 2 2 -1.</_>
        <_>
          41 18 1 2 2.</_></rects>
      <tilted>1</tilted></_>
    <_>
      <rects>
        <_>
          41 18 6 1 -1.</_>
        <_>
          41 18 3 1 2.</_></rects>
      <tilted>1</tilted></_>
    <_>
      <rects>
        <_>
          41 19 1 2 -1.</_>
        <_>
          41 19 1 1 2.</_></rects>
      <tilted>1</tilted></_>
    <_>
      <rects>
        <_>
          42 5 10 32 -1.</_>
        <_>
          42 5 5 16 2.</_>
        <_>
          47 21 5 16 2.</_></rects>
      <tilted>0</tilted></_>
    <_>
      <rects>
        <_>
          42 5 14 18 -1.</_>
        <_>
          42 5 14 9 2.</_></rects>
      <tilted>1</tilted></_>
    <_>
      <rects>
        <_>
          42 10 10 20 -1.</_>
        <_>
          42 10 5 10 2.</_>
        <_>
          47 20 5 10 2.</_></rects>
      <tilted>0</tilted></_>
    <_>
      <rects>
        <_>
          42 15 3 6 -1.</_>
        <_>
          42 15 3 3 2.</_></rects>
      <tilted>1</tilted></_>
    <_>
      <rects>
        <_>
          42 16 21 6 -1.</_>
        <_>
          49 18 7 2 9.</_></rects>
      <tilted>0</tilted></_>
    <_>
      <rects>
        <_>
          42 19 1 2 -1.</_>
        <_>
          42 19 1 1 2.</_></rects>
      <tilted>1</tilted></_>
    <_>
      <rects>
        <_>
          42 20 1 2 -1.</_>
        <_>
          42 20 1 1 2.</_></rects>
      <tilted>1</tilted></_>
    <_>
      <rects>
        <_>
          43 0 18 30 -1.</_>
        <_>
          49 10 6 10 9.</_></rects>
      <tilted>0</tilted></_>
    <_>
      <rects>
        <_>
          43 4 9 12 -1.</_>
        <_>
          46 8 3 4 9.</_></rects>
      <tilted>0</tilted></_>
    <_>
      <rects>
        <_>
          43 6 8 26 -1.</_>
        <_>
          43 6 4 13 2.</_>
        <_>
          47 19 4 13 2.</_></rects>
      <tilted>0</tilted></_>
    <_>
      <rects>
        <_>
          43 8 8 24 -1.</_>
        <_>
          43 8 4 12 2.</_>
        <_>
          47 20 4 12 2.</_></rects>
      <tilted>0</tilted></_>
    <_>
      <rects>
        <_>
          43 15 4 14 -1.</_>
        <_>
          44 16 2 14 2.</_></rects>
      <tilted>1</tilted></_>
    <_>
      <rects>
        <_>
          43 15 3 8 -1.</_>
        <_>
          41 17 3 4 2.</_></rects>
      <tilted>1</tilted></_>
    <_>
      <rects>
        <_>
          43 16 9 5 -1.</_>
        <_>
          46 19 3 5 3.</_></rects>
      <tilted>1</tilted></_>
    <_>
      <rects>
        <_>
          43 18 3 15 -1.</_>
        <_>
          44 19 1 15 3.</_></rects>
      <tilted>1</tilted></_>
    <_>
      <rects>
        <_>
          44 5 13 18 -1.</_>
        <_>
          44 5 13 9 2.</_></rects>
      <tilted>1</tilted></_>
    <_>
      <rects>
        <_>
          44 6 9 12 -1.</_>
        <_>
          47 10 3 4 9.</_></rects>
      <tilted>0</tilted></_>
    <_>
      <rects>
        <_>
          44 7 11 9 -1.</_>
        <_>
          41 10 11 3 3.</_></rects>
      <tilted>1</tilted></_>
    <_>
      <rects>
        <_>
          44 8 15 15 -1.</_>
        <_>
          49 13 5 5 9.</_></rects>
      <tilted>0</tilted></_>
    <_>
      <rects>
        <_>
          44 11 21 19 -1.</_>
        <_>
          51 11 7 19 3.</_></rects>
      <tilted>0</tilted></_>
    <_>
      <rects>
        <_>
          44 17 6 6 -1.</_>
        <_>
          46 19 2 2 9.</_></rects>
      <tilted>0</tilted></_>
    <_>
      <rects>
        <_>
          45 3 21 36 -1.</_>
        <_>
          52 15 7 12 9.</_></rects>
      <tilted>0</tilted></_>
    <_>
      <rects>
        <_>
          45 7 11 16 -1.</_>
        <_>
          45 7 11 8 2.</_></rects>
      <tilted>1</tilted></_>
    <_>
      <rects>
        <_>
          45 8 10 9 -1.</_>
        <_>
          42 11 10 3 3.</_></rects>
      <tilted>1</tilted></_>
    <_>
      <rects>
        <_>
          46 7 26 8 -1.</_>
        <_>
          59 7 13 8 2.</_></rects>
      <tilted>0</tilted></_>
    <_>
      <rects>
        <_>
          46 9 8 9 -1.</_>
        <_>
          43 12 8 3 3.</_></rects>
      <tilted>1</tilted></_>
    <_>
      <rects>
        <_>
          46 10 3 10 -1.</_>
        <_>
          47 11 1 10 3.</_></rects>
      <tilted>1</tilted></_>
    <_>
      <rects>
        <_>
          47 11 2 8 -1.</_>
        <_>
          45 13 2 4 2.</_></rects>
      <tilted>1</tilted></_>
    <_>
      <rects>
        <_>
          47 11 12 8 -1.</_>
        <_>
          45 13 12 4 2.</_></rects>
      <tilted>1</tilted></_>
    <_>
      <rects>
        <_>
          47 15 9 3 -1.</_>
        <_>
          50 16 3 1 9.</_></rects>
      <tilted>0</tilted></_>
    <_>
      <rects>
        <_>
          48 12 3 8 -1.</_>
        <_>
          46 14 3 4 2.</_></rects>
      <tilted>1</tilted></_>
    <_>
      <rects>
        <_>
          48 12 15 16 -1.</_>
        <_>
          53 12 5 16 3.</_></rects>
      <tilted>0</tilted></_>
    <_>
      <rects>
        <_>
          48 19 6 12 -1.</_>
        <_>
          50 23 2 4 9.</_></rects>
      <tilted>0</tilted></_>
    <_>
      <rects>
        <_>
          49 0 14 6 -1.</_>
        <_>
          47 2 14 2 3.</_></rects>
      <tilted>1</tilted></_>
    <_>
      <rects>
        <_>
          49 13 12 16 -1.</_>
        <_>
          52 13 6 16 2.</_></rects>
      <tilted>0</tilted></_>
    <_>
      <rects>
        <_>
          49 14 15 10 -1.</_>
        <_>
          54 14 5 10 3.</_></rects>
      <tilted>0</tilted></_>
    <_>
      <rects>
        <_>
          49 20 12 6 -1.</_>
        <_>
          53 24 4 6 3.</_></rects>
      <tilted>1</tilted></_>
    <_>
      <rects>
        <_>
          51 0 9 39 -1.</_>
        <_>
          54 13 3 13 9.</_></rects>
      <tilted>0</tilted></_>
    <_>
      <rects>
        <_>
          51 0 9 8 -1.</_>
        <_>
          49 2 9 4 2.</_></rects>
      <tilted>1</tilted></_>
    <_>
      <rects>
        <_>
          51 0 11 8 -1.</_>
        <_>
          49 2 11 4 2.</_></rects>
      <tilted>1</tilted></_>
    <_>
      <rects>
        <_>
          51 7 9 24 -1.</_>
        <_>
          54 7 3 24 3.</_></rects>
      <tilted>0</tilted></_>
    <_>
      <rects>
        <_>
          51 23 9 7 -1.</_>
        <_>
          54 26 3 7 3.</_></rects>
      <tilted>1</tilted></_>
    <_>
      <rects>
        <_>
          52 19 3 6 -1.</_>
        <_>
          53 21 1 2 9.</_></rects>
      <tilted>0</tilted></_>
    <_>
      <rects>
        <_>
          52 24 9 6 -1.</_>
        <_>
          55 27 3 6 3.</_></rects>
      <tilted>1</tilted></_>
    <_>
      <rects>
        <_>
          53 7 10 26 -1.</_>
        <_>
          58 7 5 26 2.</_></rects>
      <tilted>0</tilted></_>
    <_>
      <rects>
        <_>
          53 16 5 24 -1.</_>
        <_>
          53 28 5 12 2.</_></rects>
      <tilted>0</tilted></_>
    <_>
      <rects>
        <_>
          53 18 6 14 -1.</_>
        <_>
          53 18 3 7 2.</_>
        <_>
          56 25 3 7 2.</_></rects>
      <tilted>0</tilted></_>
    <_>
      <rects>
        <_>
          53 20 1 20 -1.</_>
        <_>
          53 30 1 10 2.</_></rects>
      <tilted>0</tilted></_>
    <_>
      <rects>
        <_>
          53 21 8 11 -1.</_>
        <_>
          55 23 4 11 2.</_></rects>
      <tilted>1</tilted></_>
    <_>
      <rects>
        <_>
          54 21 8 11 -1.</_>
        <_>
          56 23 4 11 2.</_></rects>
      <tilted>1</tilted></_>
    <_>
      <rects>
        <_>
          54 23 15 1 -1.</_>
        <_>
          59 23 5 1 3.</_></rects>
      <tilted>0</tilted></_>
    <_>
      <rects>
        <_>
          55 18 2 6 -1.</_>
        <_>
          55 20 2 2 3.</_></rects>
      <tilted>0</tilted></_>
    <_>
      <rects>
        <_>
          55 19 9 12 -1.</_>
        <_>
          58 22 3 12 3.</_></rects>
      <tilted>1</tilted></_>
    <_>
      <rects>
        <_>
          70 6 8 19 -1.</_>
        <_>
          72 6 4 19 2.</_></rects>
      <tilted>0</tilted></_>
    <_>
      <rects>
        <_>
          70 22 10 15 -1.</_>
        <_>
          75 22 5 15 2.</_></rects>
      <tilted>0</tilted></_></features></cascade>
</opencv_storage>
